{"learner":{"attributes":{"best_iteration":"11","best_score":"2.546396450039e-05","scikit_learn":"{\"_estimator_type\": \"regressor\"}"},"feature_names":["lat","lon","month","year"],"feature_types":["float","float","int","int"],"gradient_booster":{"model":{"gbtree_model_param":{"num_parallel_tree":"1","num_trees":"42"},"iteration_indptr":[0,1,2,3,4,5,6,7,8,9,10,11,12,13,14,15,16,17,18,19,20,21,22,23,24,25,26,27,28,29,30,31,32,33,34,35,36,37,38,39,40,41,42],"tree_info":[0,0,0,0,0,0,0,0,0,0,0,0,0,0,0,0,0,0,0,0,0,0,0,0,0,0,0,0,0,0,0,0,0,0,0,0,0,0,0,0,0,0],"trees":[{"base_weights":[-5.460107E-14,7.940601E-6,-5.0042913E-6,-8.088038E-6,2.3607958E-5,-1.2211855E-5,-1.5374037E-6,-6.7236374E-6,-4.40902E-6,1.6165754E-5,4.5911806E-5,-2.7018334E-6,-1.2906136E-5,-4.4203744E-6,4.3947744E-6,9.70646E-7,-8.116161E-6,2.581303E-5,1.0761474E-5,2.5608068E-5,5.1682513E-5,1.2831351E-5,-4.7384096E-6,-1.21808835E-5,-5.7083225E-6,2.3910002E-7,-9.048492E-6,3.6312056E-5,-3.1653403E-6,-2.2696627E-6,9.798143E-6,-1.025783E-5,5.1594648E-6,1.4185512E-5,3.0775576E-5,1.3822316E-5,-7.57275E-6,6.5341505E-5,1.1526288E-5,5.523519E-5,4.3842145E-5,5.374126E-7,1.7138591E-5,-9.207886E-6,-1.350582E-5,3.3480044E-6,-1.06603275E-5,-1.9798774E-5,-3.1727238E-6,5.7263736E-5,-1.7403867E-6,3.3270675E-7,-1.2388525E-5,5.517426E-6,-8.9906126E-7,1.7416628E-6,6.359831E-6,-3.638181E-6,3.6978128E-7,1.045532E-5,-2.4337435E-6,1.398582E-5,9.444024E-7,1.0802186E-5,7.031319E-6,4.7897624E-6,1.0421986E-6,-7.0962533E-6,5.962156E-7,1.6995495E-5,2.2497588E-5,-4.6590993E-9,1.238368E-5,1.9068359E-5,1.4535991E-5,1.5630492E-6,1.8826671E-5,8.013415E-6,3.0796207E-6,-5.107353E-6,-1.443177E-6,-4.6247383E-6,-3.5842154E-6,6.143498E-6,6.9238786E-7,-4.5852926E-6,-2.4269E-6,-6.271018E-6,1.4243622E-8,-2.5618124E-6,3.060519E-8,9.215326E-6,1.9162662E-5,4.427896E-6,-3.181453E-6,-1.2359361E-6,1.3693059E-6,-4.704314E-6,-5.6873645E-8],"categories":[],"categories_nodes":[],"categories_segments":[],"categories_sizes":[],"default_left":[0,0,0,0,0,0,0,0,0,0,0,0,0,0,0,0,0,0,0,0,0,0,0,0,0,0,0,0,0,0,0,0,0,0,0,0,0,0,0,0,0,0,0,0,0,0,0,0,0,0,0,0,0,0,0,0,0,0,0,0,0,0,0,0,0,0,0,0,0,0,0,0,0,0,0,0,0,0,0,0,0,0,0,0,0,0,0,0,0,0,0,0,0,0,0,0,0,0,0],"id":0,"left_children":[1,3,5,7,9,11,13,-1,15,17,19,21,23,25,27,29,31,33,35,37,39,41,-1,43,-1,45,47,49,51,53,55,57,59,61,63,65,67,69,71,73,75,-1,77,79,81,83,85,87,89,91,93,95,97,-1,-1,-1,-1,-1,-1,-1,-1,-1,-1,-1,-1,-1,-1,-1,-1,-1,-1,-1,-1,-1,-1,-1,-1,-1,-1,-1,-1,-1,-1,-1,-1,-1,-1,-1,-1,-1,-1,-1,-1,-1,-1,-1,-1,-1,-1],"loss_changes":[2.0619173E-4,5.0374644E-4,7.953502E-5,5.225274E-5,1.6838033E-4,6.8255613E-6,3.675598E-5,0E0,1.5733518E-5,3.965544E-5,2.9735034E-5,1.4304913E-5,4.2771426E-6,3.1188858E-5,1.6960507E-4,9.206304E-6,1.3279587E-5,1.575789E-5,2.7358543E-5,3.1427902E-5,5.5022538E-6,1.5297592E-6,0E0,3.39291E-6,0E0,2.4421459E-5,4.583274E-5,1.0731643E-4,1.8334498E-5,3.5374442E-6,3.93383E-6,8.639152E-6,2.5568022E-5,2.9245064E-5,7.3471165E-6,9.267009E-6,1.0722839E-5,1.2283417E-6,1.4242157E-5,7.676077E-6,4.503045E-5,0E0,1.5223673E-6,9.12723E-6,1.7733764E-6,9.99064E-6,1.9011404E-6,5.621572E-6,8.245254E-6,1.5234429E-5,6.9912767E-6,7.762987E-6,6.2763866E-6,0E0,0E0,0E0,0E0,0E0,0E0,0E0,0E0,0E0,0E0,0E0,0E0,0E0,0E0,0E0,0E0,0E0,0E0,0E0,0E0,0E0,0E0,0E0,0E0,0E0,0E0,0E0,0E0,0E0,0E0,0E0,0E0,0E0,0E0,0E0,0E0,0E0,0E0,0E0,0E0,0E0,0E0,0E0,0E0,0E0,0E0],"parents":[2147483647,0,0,1,1,2,2,3,3,4,4,5,5,6,6,8,8,9,9,10,10,11,11,12,12,13,13,14,14,15,15,16,16,17,17,18,18,19,19,20,20,21,21,23,23,25,25,26,26,27,27,28,28,29,29,30,30,31,31,32,32,33,33,34,34,35,35,36,36,37,37,38,38,39,39,40,40,42,42,43,43,44,44,45,45,46,46,47,47,48,48,49,49,50,50,51,51,52,52],"right_children":[2,4,6,8,10,12,14,-1,16,18,20,22,24,26,28,30,32,34,36,38,40,42,-1,44,-1,46,48,50,52,54,56,58,60,62,64,66,68,70,72,74,76,-1,78,80,82,84,86,88,90,92,94,96,98,-1,-1,-1,-1,-1,-1,-1,-1,-1,-1,-1,-1,-1,-1,-1,-1,-1,-1,-1,-1,-1,-1,-1,-1,-1,-1,-1,-1,-1,-1,-1,-1,-1,-1,-1,-1,-1,-1,-1,-1,-1,-1,-1,-1,-1,-1],"split_conditions":[1.7E1,-1.6E1,5E0,-7.65E1,8.3125E1,-1.20625E2,7.3125E1,-6.7236374E-6,-3.375E1,-4.75E1,-7.5E0,6.1E1,7E1,-3.375E1,3.65E1,-5.8125E1,-2E1,-7E0,1.35E1,4E0,6E0,-1.54375E2,-4.7384096E-6,-2.5E0,-5.7083225E-6,6.8E1,4.1E1,1E1,1E1,-1.54375E2,1E1,1.50625E2,4E0,4E0,8E0,3.875E1,6E0,1.38125E2,1.4875E2,1.175E2,5E0,5.374126E-7,-1.28125E2,-9.5625E1,3E0,2.3E1,7E0,6.6875E1,5.3E1,6E0,1.1E1,1.1375E2,1.36875E2,5.517426E-6,-8.9906126E-7,1.7416628E-6,6.359831E-6,-3.638181E-6,3.6978128E-7,1.045532E-5,-2.4337435E-6,1.398582E-5,9.444024E-7,1.0802186E-5,7.031319E-6,4.7897624E-6,1.0421986E-6,-7.0962533E-6,5.962156E-7,1.6995495E-5,2.2497588E-5,-4.6590993E-9,1.238368E-5,1.9068359E-5,1.4535991E-5,1.5630492E-6,1.8826671E-5,8.013415E-6,3.0796207E-6,-5.107353E-6,-1.443177E-6,-4.6247383E-6,-3.5842154E-6,6.143498E-6,6.9238786E-7,-4.5852926E-6,-2.4269E-6,-6.271018E-6,1.4243622E-8,-2.5618124E-6,3.060519E-8,9.215326E-6,1.9162662E-5,4.427896E-6,-3.181453E-6,-1.2359361E-6,1.3693059E-6,-4.704314E-6,-5.6873645E-8],"split_indices":[0,0,2,0,1,1,1,0,1,1,0,0,0,1,0,1,0,0,0,2,0,1,0,1,0,0,0,2,2,1,2,1,2,2,2,1,2,1,1,1,2,0,1,1,2,0,2,1,0,2,2,1,1,0,0,0,0,0,0,0,0,0,0,0,0,0,0,0,0,0,0,0,0,0,0,0,0,0,0,0,0,0,0,0,0,0,0,0,0,0,0,0,0,0,0,0,0,0,0],"split_type":[0,0,0,0,0,0,0,0,0,0,0,0,0,0,0,0,0,0,0,0,0,0,0,0,0,0,0,0,0,0,0,0,0,0,0,0,0,0,0,0,0,0,0,0,0,0,0,0,0,0,0,0,0,0,0,0,0,0,0,0,0,0,0,0,0,0,0,0,0,0,0,0,0,0,0,0,0,0,0,0,0,0,0,0,0,0,0,0,0,0,0,0,0,0,0,0,0,0,0],"sum_hessian":[5.188898E6,2.005946E6,3.182952E6,9.91541E5,1.014405E6,1.03377E6,2.149182E6,2.02625E5,7.88916E5,7.60611E5,2.53794E5,7.0336E4,9.63434E5,1.446298E6,7.02884E5,3.21854E5,4.67062E5,2.73097E5,4.87514E5,5.617E4,1.97624E5,3.217E4,3.8166E4,8.61385E5,1.02049E5,7.20708E5,7.2559E5,1.34605E5,5.68279E5,2.35434E5,8.642E4,4.02181E5,6.4881E4,8.1692E4,1.91405E5,4.17769E5,6.9745E4,1.4697E4,4.1473E4,1.35995E5,6.1629E4,9.029E3,2.3141E4,2.65544E5,5.95841E5,5.6076E5,1.59948E5,2.56428E5,4.69162E5,8.6808E4,4.7797E4,4.12016E5,1.56263E5,8.004E3,2.2743E5,6.4007E4,2.2413E4,3.45904E5,5.6277E4,2.0042E4,4.4839E4,2.0741E4,6.0951E4,1.11736E5,7.9669E4,3.46081E5,7.1688E4,2.6003E4,4.3742E4,7.737E3,6.96E3,2.9882E4,1.1591E4,6.1044E4,7.4951E4,2.0256E4,4.1373E4,9.67E3,1.3471E4,9.5601E4,1.69943E5,2.67721E5,3.2812E5,3.2096E4,5.28664E5,5.7148E4,1.028E5,2.42908E5,1.352E4,1.77793E5,2.91369E5,1.7311E4,6.9497E4,1.6704E4,3.1093E4,2.00769E5,2.11247E5,1.23051E5,3.3212E4],"tree_param":{"num_deleted":"0","num_feature":"4","num_nodes":"99","size_leaf_vector":"1"}},{"base_weights":[2.940248E-11,5.558495E-6,-3.503003E-6,-5.5316527E-6,1.6722435E-5,-7.797803E-6,-3.6214405E-7,-4.621199E-6,-2.7501897E-6,1.10969995E-5,3.1789838E-5,-6.7536844E-6,-3.7963148E-6,2.3424495E-6,-5.4410993E-6,3.8726575E-6,-5.517274E-6,1.3600313E-5,-1.6471909E-6,1.5405929E-5,3.4563884E-5,-3.5413514E-6,-8.2378965E-6,-1.348926E-6,9.502919E-6,1.2326615E-5,-6.5334507E-6,-1.3950121E-6,2.124701E-5,-1.1525871E-6,-8.546025E-6,1.4812025E-5,-4.387521E-6,-1.9271347E-5,9.513987E-6,3.9850038E-5,2.2395109E-6,3.7797476E-5,2.8658567E-5,-4.2304387E-6,2.036732E-5,-1.0088213E-5,-5.7466123E-6,2.3523216E-6,-5.430796E-6,4.5120156E-5,2.2009817E-6,2.581529E-5,-2.055913E-6,-4.537555E-6,-5.5505043E-6,1.0894746E-6,-1.466203E-6,6.0938382E-6,2.5501105E-5,-1.230499E-6,9.769913E-7,-3.0122808E-6,2.5918346E-6,2.2704774E-6,5.889409E-6,7.484822E-6,-3.591265E-6,-6.7358583E-6,-2.6447317E-6,6.890139E-6,-3.868461E-6,1.5069906E-5,8.817962E-6,-1.2174155E-6,1.2708534E-5,1.4038451E-5,9.9876925E-6,4.991698E-8,1.2689722E-5,-8.056208E-7,-3.4969407E-6,-3.918709E-6,9.480596E-6,-5.0913513E-6,-2.8064774E-6,-2.8709203E-6,1.0776546E-7,1.7737157E-6,-1.4526753E-6,-3.776865E-6,1.4917602E-7,1.9148065E-5,9.966043E-6,-6.301013E-7,1.7073955E-6,2.6728444E-6,9.635104E-6,3.469386E-7,-2.1467042E-6],"categories":[],"categories_nodes":[],"categories_segments":[],"categories_sizes":[],"default_left":[0,0,0,0,0,0,0,0,0,0,0,0,0,0,0,0,0,0,0,0,0,0,0,0,0,0,0,0,0,0,0,0,0,0,0,0,0,0,0,0,0,0,0,0,0,0,0,0,0,0,0,0,0,0,0,0,0,0,0,0,0,0,0,0,0,0,0,0,0,0,0,0,0,0,0,0,0,0,0,0,0,0,0,0,0,0,0,0,0,0,0,0,0,0,0],"id":1,"left_children":[1,3,5,7,9,11,13,-1,15,17,19,21,-1,23,25,27,29,31,33,35,37,39,41,43,45,47,49,51,53,55,57,59,61,63,65,67,69,71,73,75,77,79,81,83,85,87,89,91,-1,-1,93,-1,-1,-1,-1,-1,-1,-1,-1,-1,-1,-1,-1,-1,-1,-1,-1,-1,-1,-1,-1,-1,-1,-1,-1,-1,-1,-1,-1,-1,-1,-1,-1,-1,-1,-1,-1,-1,-1,-1,-1,-1,-1,-1,-1],"loss_changes":[1.01035585E-4,2.4835588E-4,4.2935993E-5,2.7632508E-5,8.4730535E-5,6.817645E-6,2.5254027E-5,0E0,1.4387817E-5,2.3221699E-5,1.2350763E-5,5.275957E-6,0E0,3.1708874E-5,1.2398676E-5,2.1174641E-5,7.32025E-6,1.32605055E-5,2.3507575E-5,1.2665013E-5,4.4368207E-6,5.761598E-6,3.4889163E-6,1.195906E-5,1.0612889E-4,9.572379E-6,5.082422E-6,3.1165612E-6,3.2042863E-6,2.9497103E-6,8.3984105E-6,1.9898333E-5,8.542576E-6,1.5411806E-6,2.205852E-5,1.494227E-6,6.462776E-6,6.085611E-6,3.1960815E-5,3.899956E-6,3.6798847E-6,2.1918895E-6,7.5299313E-6,1.0633092E-5,1.5974734E-5,1.5452824E-5,5.084122E-6,2.3139892E-6,0E0,0E0,5.813994E-6,0E0,0E0,0E0,0E0,0E0,0E0,0E0,0E0,0E0,0E0,0E0,0E0,0E0,0E0,0E0,0E0,0E0,0E0,0E0,0E0,0E0,0E0,0E0,0E0,0E0,0E0,0E0,0E0,0E0,0E0,0E0,0E0,0E0,0E0,0E0,0E0,0E0,0E0,0E0,0E0,0E0,0E0,0E0,0E0],"parents":[2147483647,0,0,1,1,2,2,3,3,4,4,5,5,6,6,8,8,9,9,10,10,11,11,13,13,14,14,15,15,16,16,17,17,18,18,19,19,20,20,21,21,22,22,23,23,24,24,25,25,26,26,27,27,28,28,29,29,30,30,31,31,32,32,33,33,34,34,35,35,36,36,37,37,38,38,39,39,40,40,41,41,42,42,43,43,44,44,45,45,46,46,47,47,50,50],"right_children":[2,4,6,8,10,12,14,-1,16,18,20,22,-1,24,26,28,30,32,34,36,38,40,42,44,46,48,50,52,54,56,58,60,62,64,66,68,70,72,74,76,78,80,82,84,86,88,90,92,-1,-1,94,-1,-1,-1,-1,-1,-1,-1,-1,-1,-1,-1,-1,-1,-1,-1,-1,-1,-1,-1,-1,-1,-1,-1,-1,-1,-1,-1,-1,-1,-1,-1,-1,-1,-1,-1,-1,-1,-1,-1,-1,-1,-1,-1,-1],"split_conditions":[1.7E1,-1.55E1,6E0,-7.55E1,5.8125E1,6.7E1,1E1,-4.621199E-6,4E0,1.15E1,-8.5E0,-1.625E1,-3.7963148E-6,7.125E1,-1.20625E2,-2.25E1,-2.375E1,4.0625E1,6E0,5E0,6E0,-4.75E1,4E0,-3.875E1,3.55E1,6.1E1,-9.75E1,-2.375E1,1.725E2,1E1,1.65E2,-4.5E0,-3.5E0,5E0,1E1,3E0,1.2E1,5E0,5E0,6.2E1,4.05E1,2.45E1,8.5625E1,6.6E1,5E1,2.4E1,1.1E2,-1.54375E2,-2.055913E-6,-4.537555E-6,-1.625E1,1.0894746E-6,-1.466203E-6,6.0938382E-6,2.5501105E-5,-1.230499E-6,9.769913E-7,-3.0122808E-6,2.5918346E-6,2.2704774E-6,5.889409E-6,7.484822E-6,-3.591265E-6,-6.7358583E-6,-2.6447317E-6,6.890139E-6,-3.868461E-6,1.5069906E-5,8.817962E-6,-1.2174155E-6,1.2708534E-5,1.4038451E-5,9.9876925E-6,4.991698E-8,1.2689722E-5,-8.056208E-7,-3.4969407E-6,-3.918709E-6,9.480596E-6,-5.0913513E-6,-2.8064774E-6,-2.8709203E-6,1.0776546E-7,1.7737157E-6,-1.4526753E-6,-3.776865E-6,1.4917602E-7,1.9148065E-5,9.966043E-6,-6.301013E-7,1.7073955E-6,2.6728444E-6,9.635104E-6,3.469386E-7,-2.1467042E-6],"split_indices":[0,0,2,0,1,0,2,0,2,0,0,1,0,1,1,0,1,1,2,2,0,1,2,1,0,0,1,1,1,2,1,0,0,2,2,2,2,2,2,0,0,0,1,0,0,0,1,1,0,0,1,0,0,0,0,0,0,0,0,0,0,0,0,0,0,0,0,0,0,0,0,0,0,0,0,0,0,0,0,0,0,0,0,0,0,0,0,0,0,0,0,0,0,0,0],"split_type":[0,0,0,0,0,0,0,0,0,0,0,0,0,0,0,0,0,0,0,0,0,0,0,0,0,0,0,0,0,0,0,0,0,0,0,0,0,0,0,0,0,0,0,0,0,0,0,0,0,0,0,0,0,0,0,0,0,0,0,0,0,0,0,0,0,0,0,0,0,0,0,0,0,0,0,0,0,0,0,0,0,0,0,0,0,0,0,0,0,0,0,0,0,0,0],"sum_hessian":[5.188898E6,2.005946E6,3.182952E6,1.006299E6,9.99647E5,1.344494E6,1.838458E6,2.21196E5,7.85103E5,7.2789E5,2.71757E5,1.10659E6,2.37904E5,1.199639E6,6.38819E5,2.31359E5,5.53744E5,6.08386E5,1.19504E5,3.9351E4,2.32406E5,3.49708E5,7.56882E5,7.91569E5,4.0807E5,3.6999E4,6.0182E5,1.77534E5,5.3825E4,2.26844E5,3.269E5,5.6999E5,3.8396E4,4.6336E4,7.3168E4,1.3775E4,2.5576E4,1.50171E5,8.2235E4,3.39912E5,9.796E3,4.3431E5,3.22572E5,4.1514E5,3.76429E5,6.9425E4,3.38645E5,2.1722E4,1.5277E4,6.1782E4,5.40038E5,7.278E4,1.04754E5,5.3049E4,7.76E2,1.35929E5,9.0915E4,3.0074E5,2.616E4,2.27718E5,3.42272E5,7.886E3,3.051E4,3.5525E4,1.0811E4,4.572E4,2.7448E4,6.91E3,6.865E3,2.2107E4,3.469E3,5.0102E4,1.00069E5,2.6624E4,5.5611E4,2.81372E5,5.854E4,2.464E3,7.332E3,4.1813E4,3.92497E5,1.98366E5,1.24206E5,2.77718E5,1.37422E5,1.70514E5,2.05915E5,2.6991E4,4.2434E4,1.51699E5,1.86946E5,5.899E3,1.5823E4,1.04288E5,4.3575E5],"tree_param":{"num_deleted":"0","num_feature":"4","num_nodes":"95","size_leaf_vector":"1"}},{"base_weights":[4.4057827E-11,3.963254E-6,-2.4343974E-6,-4.369904E-6,1.1688918E-5,-5.499898E-6,-1.9657377E-7,-9.236503E-6,-1.6028804E-6,7.992691E-6,2.162166E-5,-4.860509E-6,-2.8849274E-6,2.6376995E-6,-2.9030896E-6,-3.5616292E-6,-6.5914683E-6,1.1601811E-6,-5.5988216E-6,1.3622315E-5,4.601814E-6,7.33913E-6,2.4176094E-5,1.3090638E-6,-5.326408E-6,-6.6923116E-7,9.298425E-6,9.681263E-6,-3.5313085E-6,-7.819039E-7,-3.0438855E-6,6.6414477E-6,-2.0122309E-6,-9.635933E-6,5.0646936E-6,1.8607388E-5,8.558024E-6,-5.880017E-6,6.032948E-6,3.012716E-5,-1.4588175E-6,1.9551457E-5,2.7711167E-5,9.045291E-6,-1.6092209E-6,-6.289583E-6,-1.7816236E-6,7.4503913E-7,-7.953724E-6,3.732013E-5,2.786459E-6,2.3898376E-5,-8.3317894E-7,-1.6638146E-6,-6.443568E-6,4.932644E-7,3.882969E-6,-1.3882159E-6,1.3066959E-6,7.292284E-7,-3.8006428E-6,1.958556E-7,3.5312714E-6,6.8707836E-6,-9.45338E-7,7.8955907E-7,6.7086444E-6,4.4010217E-6,-4.891535E-6,7.4679815E-6,1.4730102E-6,5.8967066E-6,1.3363114E-5,-1.8719445E-6,9.218284E-6,5.446507E-6,1.0427516E-5,8.547884E-6,-5.0311555E-6,5.098133E-6,1.2263387E-6,-3.0493463E-6,-1.6437635E-6,-1.0598844E-6,7.5658045E-7,-9.806963E-7,1.4416217E-6,-1.591589E-6,-3.5665528E-6,1.6063119E-5,8.574869E-6,1.481423E-6,-1.4199752E-6,2.525569E-6,1.15258035E-5,3.3489662E-6,-7.81913E-7,-3.5707337E-6,-1.455564E-6],"categories":[],"categories_nodes":[],"categories_segments":[],"categories_sizes":[],"default_left":[0,0,0,0,0,0,0,0,0,0,0,0,0,0,0,0,0,0,0,0,0,0,0,0,0,0,0,0,0,0,0,0,0,0,0,0,0,0,0,0,0,0,0,0,0,0,0,0,0,0,0,0,0,0,0,0,0,0,0,0,0,0,0,0,0,0,0,0,0,0,0,0,0,0,0,0,0,0,0,0,0,0,0,0,0,0,0,0,0,0,0,0,0,0,0,0,0,0,0],"id":2,"left_children":[1,3,5,7,9,11,13,15,17,19,21,23,-1,25,27,-1,29,31,33,35,37,39,41,43,45,47,49,51,53,-1,-1,55,57,59,61,63,65,67,69,71,73,75,77,79,-1,81,83,85,87,89,91,93,-1,95,97,-1,-1,-1,-1,-1,-1,-1,-1,-1,-1,-1,-1,-1,-1,-1,-1,-1,-1,-1,-1,-1,-1,-1,-1,-1,-1,-1,-1,-1,-1,-1,-1,-1,-1,-1,-1,-1,-1,-1,-1,-1,-1,-1,-1],"loss_changes":[5.0063558E-5,1.2711584E-4,2.2051036E-5,1.2791292E-5,3.761628E-5,3.5700104E-6,1.425305E-5,2.4002384E-6,6.686245E-6,1.4254329E-5,1.0137621E-5,3.3746182E-6,0E0,1.9991312E-5,7.5139733E-6,0E0,2.4345077E-6,6.225599E-6,1.0657457E-5,7.0862843E-6,6.990803E-6,8.452413E-6,3.853027E-6,4.255642E-6,3.7269565E-6,6.2482127E-6,5.494555E-5,8.004488E-6,4.9233167E-6,0E0,0E0,4.1332346E-6,3.7764726E-6,6.5719014E-6,2.0114762E-6,1.3220026E-5,1.1390861E-5,1.19942815E-5,8.683899E-6,1.7718776E-6,4.6808577E-6,2.167999E-6,4.646128E-6,1.5042399E-6,0E0,2.6952912E-6,1.7578614E-6,8.277756E-6,1.0274989E-6,8.046998E-6,3.9532024E-6,4.7439244E-6,0E0,6.6685775E-6,3.0730962E-6,0E0,0E0,0E0,0E0,0E0,0E0,0E0,0E0,0E0,0E0,0E0,0E0,0E0,0E0,0E0,0E0,0E0,0E0,0E0,0E0,0E0,0E0,0E0,0E0,0E0,0E0,0E0,0E0,0E0,0E0,0E0,0E0,0E0,0E0,0E0,0E0,0E0,0E0,0E0,0E0,0E0,0E0,0E0,0E0],"parents":[2147483647,0,0,1,1,2,2,3,3,4,4,5,5,6,6,7,7,8,8,9,9,10,10,11,11,13,13,14,14,16,16,17,17,18,18,19,19,20,20,21,21,22,22,23,23,24,24,25,25,26,26,27,27,28,28,31,31,32,32,33,33,34,34,35,35,36,36,37,37,38,38,39,39,40,40,41,41,42,42,43,43,45,45,46,46,47,47,48,48,49,49,50,50,51,51,53,53,54,54],"right_children":[2,4,6,8,10,12,14,16,18,20,22,24,-1,26,28,-1,30,32,34,36,38,40,42,44,46,48,50,52,54,-1,-1,56,58,60,62,64,66,68,70,72,74,76,78,80,-1,82,84,86,88,90,92,94,-1,96,98,-1,-1,-1,-1,-1,-1,-1,-1,-1,-1,-1,-1,-1,-1,-1,-1,-1,-1,-1,-1,-1,-1,-1,-1,-1,-1,-1,-1,-1,-1,-1,-1,-1,-1,-1,-1,-1,-1,-1,-1,-1,-1,-1,-1],"split_conditions":[1.6E1,-1.75E1,6E0,-6.9E1,5.8125E1,6.9E1,9E0,-7.8E1,1E2,-4.75E1,-1E1,-1.20625E2,-2.8849274E-6,7.3125E1,-1.25625E2,-3.5616292E-6,-6.5E1,5E0,1.475E2,7E0,-2E1,4E0,2.02E3,6.05E1,5E0,7.1E1,3.75E1,6.15E1,1.1E1,-7.819039E-7,-3.0438855E-6,-2.85E1,1.1E1,-3.6E1,1.65E2,7.5E0,3E0,5E0,-8.125E0,1.40625E2,1.2E1,1.50625E2,1.675E2,3E0,-1.6092209E-6,2.95E1,8.5625E1,5.2E1,7.9E1,9.5E1,6.95E1,-1.50625E2,-8.3317894E-7,2.25E1,3E1,4.932644E-7,3.882969E-6,-1.3882159E-6,1.3066959E-6,7.292284E-7,-3.8006428E-6,1.958556E-7,3.5312714E-6,6.8707836E-6,-9.45338E-7,7.8955907E-7,6.7086444E-6,4.4010217E-6,-4.891535E-6,7.4679815E-6,1.4730102E-6,5.8967066E-6,1.3363114E-5,-1.8719445E-6,9.218284E-6,5.446507E-6,1.0427516E-5,8.547884E-6,-5.0311555E-6,5.098133E-6,1.2263387E-6,-3.0493463E-6,-1.6437635E-6,-1.0598844E-6,7.5658045E-7,-9.806963E-7,1.4416217E-6,-1.591589E-6,-3.5665528E-6,1.6063119E-5,8.574869E-6,1.481423E-6,-1.4199752E-6,2.525569E-6,1.15258035E-5,3.3489662E-6,-7.81913E-7,-3.5707337E-6,-1.455564E-6],"split_indices":[0,0,2,0,1,0,2,0,1,1,0,1,0,1,1,0,1,2,1,2,1,2,3,0,2,0,0,0,2,0,0,0,2,0,1,0,0,2,1,1,2,1,1,2,0,0,1,0,0,1,0,1,0,0,0,0,0,0,0,0,0,0,0,0,0,0,0,0,0,0,0,0,0,0,0,0,0,0,0,0,0,0,0,0,0,0,0,0,0,0,0,0,0,0,0,0,0,0,0],"split_type":[0,0,0,0,0,0,0,0,0,0,0,0,0,0,0,0,0,0,0,0,0,0,0,0,0,0,0,0,0,0,0,0,0,0,0,0,0,0,0,0,0,0,0,0,0,0,0,0,0,0,0,0,0,0,0,0,0,0,0,0,0,0,0,0,0,0,0,0,0,0,0,0,0,0,0,0,0,0,0,0,0,0,0,0,0,0,0,0,0,0,0,0,0,0,0,0,0,0,0],"sum_hessian":[5.188898E6,1.974485E6,3.214413E6,9.49896E5,1.024589E6,1.356373E6,1.85804E6,3.44316E5,6.0558E5,7.46718E5,2.77871E5,1.174023E6,1.8235E5,9.07599E5,9.50441E5,1.72464E5,1.71852E5,3.58021E5,2.47559E5,2.80696E5,4.66022E5,4.2158E4,2.35713E5,8.2432E4,1.091591E6,6.06489E5,3.0111E5,4.519E4,9.05251E5,8.1023E4,9.0829E4,1.31249E5,2.26772E5,1.79574E5,6.7985E4,1.41453E5,1.39243E5,5.5984E4,4.10038E5,1.1742E4,3.0416E4,1.02122E5,1.33591E5,3.8175E4,4.4257E4,8.5836E5,2.33231E5,5.07885E5,9.8604E4,5.6779E4,2.44331E5,2.1105E4,2.4085E4,5.51562E5,3.53689E5,7.3202E4,5.8047E4,1.60754E5,6.6018E4,3.6069E4,1.43505E5,4.1008E4,2.6977E4,1.18133E5,2.332E4,9.7421E4,4.1822E4,1.8842E4,3.7142E4,2.304E4,3.86998E5,6.803E3,4.939E3,2.6483E4,3.933E3,9.3535E4,8.587E3,1.31284E5,2.307E3,1.4663E4,2.3512E4,1.48461E5,7.09899E5,1.65771E5,6.746E4,2.554E5,2.52485E5,5.8937E4,3.9667E4,1.9873E4,3.6906E4,1.89974E5,5.4357E4,1.0216E4,1.0889E4,3.7755E4,5.13807E5,7.9845E4,2.73844E5],"tree_param":{"num_deleted":"0","num_feature":"4","num_nodes":"99","size_leaf_vector":"1"}},{"base_weights":[4.9038794E-11,2.8672082E-6,-1.6773625E-6,-2.595663E-6,9.411367E-6,-3.9889974E-6,5.653E-9,-2.2096763E-6,-1.0116121E-6,6.7507694E-6,1.725993E-5,-8.711961E-6,-3.6440738E-6,1.0539767E-6,-4.2893657E-6,4.2362726E-6,-3.1320824E-6,8.017479E-6,-2.6497244E-6,1.0720366E-5,1.9790026E-5,-1.12187345E-5,2.133915E-6,-2.9938474E-6,-1.8860843E-6,9.340887E-6,-1.8272141E-8,1.6561778E-5,-5.0422104E-6,1.3940584E-7,1.6380242E-5,-4.8511965E-6,1.5012654E-6,2.922427E-6,1.04003575E-5,1.3811889E-5,-5.8006976E-6,2.8187125E-5,1.8452652E-6,2.0553356E-5,-3.223591E-6,-1.2899188E-6,-4.085892E-6,-1.1399554E-6,6.849388E-6,-1.4729062E-6,-4.7794933E-6,-1.6089741E-6,3.297232E-5,1.0215703E-6,-1.5494062E-6,1.0705992E-6,2.3462651E-5,-5.492083E-6,2.5452373E-6,7.8367833E-7,-9.3854436E-7,6.5606505E-6,1.60113E-6,2.437203E-7,-2.6529035E-6,-6.4672366E-7,4.4104986E-6,8.578311E-6,-1.8257779E-6,-1.661532E-6,4.663185E-6,1.8067625E-5,-2.8088753E-6,-3.5123778E-6,2.7613457E-6,1.4012244E-5,7.663342E-6,-2.252777E-6,9.218263E-6,5.6527274E-6,8.721529E-6,-3.492793E-6,1.4260056E-7,1.1563627E-6,-2.1135343E-6,9.356763E-6,-3.136737E-6,6.40985E-6,1.1974011E-5,1.8042261E-8,1.8559962E-6,1.3306739E-5,4.669306E-6,-8.789288E-7,-2.6188764E-6],"categories":[],"categories_nodes":[],"categories_segments":[],"categories_sizes":[],"default_left":[0,0,0,0,0,0,0,0,0,0,0,0,0,0,0,0,0,0,0,0,0,0,0,0,0,0,0,0,0,0,0,0,0,0,0,0,0,0,0,0,0,0,0,0,0,0,0,0,0,0,0,0,0,0,0,0,0,0,0,0,0,0,0,0,0,0,0,0,0,0,0,0,0,0,0,0,0,0,0,0,0,0,0,0,0,0,0,0,0,0,0],"id":3,"left_children":[1,3,5,7,9,11,13,-1,15,17,19,21,23,25,27,29,31,33,35,37,39,41,43,45,-1,47,49,51,53,55,57,59,61,63,65,67,69,71,73,75,-1,-1,-1,-1,-1,77,79,81,83,85,-1,-1,87,89,-1,-1,-1,-1,-1,-1,-1,-1,-1,-1,-1,-1,-1,-1,-1,-1,-1,-1,-1,-1,-1,-1,-1,-1,-1,-1,-1,-1,-1,-1,-1,-1,-1,-1,-1,-1,-1],"loss_changes":[2.4955527E-5,6.8469475E-5,1.2736248E-5,7.887162E-6,1.8195926E-5,2.246854E-6,8.529735E-6,0E0,8.720156E-6,7.749253E-6,3.649875E-6,2.5522309E-6,2.2088661E-6,1.3530549E-5,5.8344385E-6,1.1219722E-5,4.445511E-6,6.962735E-6,4.00855E-6,9.5402975E-6,3.7077625E-6,1.2665814E-6,2.16455E-6,2.8016311E-6,0E0,4.514245E-5,7.2153252E-6,1.1612424E-6,2.1828955E-6,1.3626769E-6,3.447878E-6,9.203171E-6,7.291238E-6,4.226306E-5,3.2034717E-5,1.3355517E-5,5.74959E-6,1.0136355E-6,1.1026002E-5,2.2611857E-6,0E0,0E0,0E0,0E0,0E0,1.1037569E-5,9.281936E-6,3.459227E-5,4.4492226E-6,5.5699993E-6,0E0,0E0,1.3952163E-6,2.879956E-6,0E0,0E0,0E0,0E0,0E0,0E0,0E0,0E0,0E0,0E0,0E0,0E0,0E0,0E0,0E0,0E0,0E0,0E0,0E0,0E0,0E0,0E0,0E0,0E0,0E0,0E0,0E0,0E0,0E0,0E0,0E0,0E0,0E0,0E0,0E0,0E0,0E0],"parents":[2147483647,0,0,1,1,2,2,3,3,4,4,5,5,6,6,8,8,9,9,10,10,11,11,12,12,13,13,14,14,15,15,16,16,17,17,18,18,19,19,20,20,21,21,22,22,23,23,25,25,26,26,27,27,28,28,29,29,30,30,31,31,32,32,33,33,34,34,35,35,36,36,37,37,38,38,39,39,45,45,46,46,47,47,48,48,49,49,52,52,53,53],"right_children":[2,4,6,8,10,12,14,-1,16,18,20,22,24,26,28,30,32,34,36,38,40,42,44,46,-1,48,50,52,54,56,58,60,62,64,66,68,70,72,74,76,-1,-1,-1,-1,-1,78,80,82,84,86,-1,-1,88,90,-1,-1,-1,-1,-1,-1,-1,-1,-1,-1,-1,-1,-1,-1,-1,-1,-1,-1,-1,-1,-1,-1,-1,-1,-1,-1,-1,-1,-1,-1,-1,-1,-1,-1,-1,-1,-1],"split_conditions":[1.4E1,-1.4E1,6E0,-7.35E1,9.5E1,2.15E1,1.1E1,-2.2096763E-6,4E0,3.8125E1,-6E0,8.4375E1,6.65E1,2.55E1,-1.21875E2,-2.15E1,1.1E1,-5E0,-4E0,5E0,1.65E2,-6.5E1,5E0,4.1875E1,-1.8860843E-6,6.875E1,7.05E1,-1.50625E2,1.39375E2,5.8125E1,3E0,-3.25E1,-2.05E1,4E0,4E0,5E0,5.5625E1,1.15E2,1.50625E2,1.1E1,-3.223591E-6,-1.2899188E-6,-4.085892E-6,-1.1399554E-6,6.849388E-6,3.2E1,3.6E1,-7.5E1,8.75E1,1.18125E2,-1.5494062E-6,1.0705992E-6,5.15E1,4.1875E1,2.5452373E-6,7.8367833E-7,-9.3854436E-7,6.5606505E-6,1.60113E-6,2.437203E-7,-2.6529035E-6,-6.4672366E-7,4.4104986E-6,8.578311E-6,-1.8257779E-6,-1.661532E-6,4.663185E-6,1.8067625E-5,-2.8088753E-6,-3.5123778E-6,2.7613457E-6,1.4012244E-5,7.663342E-6,-2.252777E-6,9.218263E-6,5.6527274E-6,8.721529E-6,-3.492793E-6,1.4260056E-7,1.1563627E-6,-2.1135343E-6,9.356763E-6,-3.136737E-6,6.40985E-6,1.1974011E-5,1.8042261E-8,1.8559962E-6,1.3306739E-5,4.669306E-6,-8.789288E-7,-2.6188764E-6],"split_indices":[0,0,2,0,1,0,2,0,2,1,0,1,0,0,1,0,2,0,0,2,1,1,2,1,0,1,0,1,1,1,2,0,0,2,2,2,1,1,1,2,0,0,0,0,0,0,0,1,1,1,0,0,0,1,0,0,0,0,0,0,0,0,0,0,0,0,0,0,0,0,0,0,0,0,0,0,0,0,0,0,0,0,0,0,0,0,0,0,0,0,0],"split_type":[0,0,0,0,0,0,0,0,0,0,0,0,0,0,0,0,0,0,0,0,0,0,0,0,0,0,0,0,0,0,0,0,0,0,0,0,0,0,0,0,0,0,0,0,0,0,0,0,0,0,0,0,0,0,0,0,0,0,0,0,0,0,0,0,0,0,0,0,0,0,0,0,0,0,0,0,0,0,0,0,0,0,0,0,0,0,0,0,0,0,0],"sum_hessian":[5.188898E6,1.915234E6,3.273664E6,1.043855E6,8.71379E5,1.379251E6,1.894413E6,2.60233E5,7.83622E5,6.50774E5,2.20605E5,9.3871E4,1.28538E6,1.522744E6,3.71669E5,2.25511E5,5.58111E5,5.73496E5,7.7278E4,6.1542E4,1.59063E5,7.6248E4,1.7623E4,1.031582E6,2.53798E5,1.74455E5,1.348289E6,1.2951E4,3.58718E5,1.68625E5,5.6886E4,4.07074E5,1.51037E5,1.82748E5,3.90748E5,1.2415E4,6.4863E4,2.0734E4,4.0808E4,1.55184E5,3.879E3,1.9643E4,5.6605E4,1.3697E4,3.926E3,5.57083E5,4.74499E5,1.19216E5,5.5239E4,1.121657E6,2.26632E5,4.493E3,8.458E3,3.47172E5,1.1546E4,9.5989E4,7.2636E4,3.7999E4,1.8887E4,1.68296E5,2.38778E5,1.18272E5,3.2765E4,4.7469E4,1.35279E5,9.5333E4,2.95415E5,4.134E3,8.281E3,4.6541E4,1.8322E4,2.587E3,1.8147E4,3.0825E4,9.983E3,1.29231E5,2.5953E4,8.9563E4,4.6752E5,9.863E4,3.75869E5,2.5325E4,9.3891E4,2.0674E4,3.4565E4,9.45637E5,1.7602E5,2.319E3,6.139E3,1.93795E5,1.53377E5],"tree_param":{"num_deleted":"0","num_feature":"4","num_nodes":"91","size_leaf_vector":"1"}},{"base_weights":[5.5199838E-11,2.0982009E-6,-1.1379085E-6,-1.195035E-6,8.531536E-6,-3.7887862E-6,1.3079368E-7,2.453161E-6,-3.5294518E-6,6.524977E-6,1.403932E-5,-2.1981668E-5,-3.301181E-6,1.3174455E-6,-2.6422513E-6,-1.0778007E-6,1.5253567E-5,-6.145166E-6,1.4467657E-6,8.783174E-6,-2.3030188E-6,1.965419E-5,1.0241347E-5,-7.2869525E-6,8.905093E-6,-7.0114797E-6,-2.9155958E-6,1.8238325E-5,5.6169335E-7,-6.583652E-6,-1.234549E-6,-1.2997245E-6,1.2982025E-6,5.646882E-6,2.6645797E-5,-3.2311816E-6,-1.5030405E-5,-2.8417855E-6,1.8538378E-5,-1.1299895E-6,1.0746918E-5,-1.0794435E-5,4.2466894E-7,1.42855315E-5,4.6603014E-5,2.6159962E-6,1.847417E-5,-2.4213386E-6,2.8111185E-6,-1.82698E-6,-4.4879075E-6,6.121734E-7,2.9859995E-5,1.5132616E-6,-3.907696E-6,-9.39022E-6,1.5088788E-5,1.5626083E-6,-4.9964056E-6,1.2682218E-6,-6.178497E-7,3.2443465E-6,-7.847155E-7,1.2705753E-5,3.9379347E-6,-4.3375215E-7,-1.6056728E-6,-5.117957E-6,3.6978292E-6,-1.3705461E-6,1.1830941E-6,2.8364568E-6,8.295152E-6,6.3666607E-6,-7.31075E-6,2.994442E-7,4.486622E-6,6.503562E-6,-5.578404E-6,3.4651875E-6,-8.334237E-7,5.5285236E-6,1.6673224E-6,1.5240667E-5,-7.323396E-7,-3.5572946E-6,1.7914965E-6,9.029879E-6,3.118489E-6,-3.0852775E-6,-3.059582E-7,1.08853E-6,-1.7587596E-6,1.6058419E-5,-1.1499527E-6,7.627691E-6,1.2920335E-5,1.7094205E-8,1.6375644E-6,-9.941726E-7,-3.0680092E-6,8.169521E-7,-3.89642E-6,1.2193125E-5,1.4667187E-6,-6.695449E-7,1.5705391E-6,-2.0025345E-6,5.1691654E-7],"categories":[],"categories_nodes":[],"categories_segments":[],"categories_sizes":[],"default_left":[0,0,0,0,0,0,0,0,0,0,0,0,0,0,0,0,0,0,0,0,0,0,0,0,0,0,0,0,0,0,0,0,0,0,0,0,0,0,0,0,0,0,0,0,0,0,0,0,0,0,0,0,0,0,0,0,0,0,0,0,0,0,0,0,0,0,0,0,0,0,0,0,0,0,0,0,0,0,0,0,0,0,0,0,0,0,0,0,0,0,0,0,0,0,0,0,0,0,0,0,0,0,0,0,0,0,0,0,0],"id":4,"left_children":[1,3,5,7,9,11,13,15,17,19,21,23,25,27,29,31,33,35,37,39,41,43,45,-1,-1,47,49,51,53,55,57,-1,59,61,63,65,67,69,71,73,75,77,79,81,83,85,87,-1,-1,89,91,93,95,97,99,101,103,105,107,-1,-1,-1,-1,-1,-1,-1,-1,-1,-1,-1,-1,-1,-1,-1,-1,-1,-1,-1,-1,-1,-1,-1,-1,-1,-1,-1,-1,-1,-1,-1,-1,-1,-1,-1,-1,-1,-1,-1,-1,-1,-1,-1,-1,-1,-1,-1,-1,-1,-1],"loss_changes":[1.23890895E-5,3.865802E-5,1.1314545E-5,1.0278132E-5,6.827584E-6,9.659938E-6,7.487184E-6,2.1284446E-5,9.579324E-6,9.027273E-6,3.51778E-6,3.3903516E-6,1.5172081E-6,2.0376769E-5,3.783207E-6,2.8542693E-6,1.1142754E-5,1.2489547E-5,1.8585704E-5,7.019542E-6,2.136438E-6,9.629461E-6,6.1778264E-6,0E0,0E0,1.7331499E-6,1.6443528E-6,1.3955274E-5,6.487024E-6,1.0914853E-5,5.2867667E-6,0E0,2.0983894E-6,2.3585728E-6,9.890235E-6,1.3755646E-6,6.614202E-6,2.3749594E-6,4.2095126E-6,3.0970437E-5,1.2347973E-5,5.680843E-6,2.4877581E-6,2.0068937E-6,2.2772765E-6,2.4814412E-6,4.4440876E-6,0E0,0E0,3.8748753E-6,4.385014E-6,6.368105E-6,2.4034744E-6,7.2252533E-6,1.0045842E-6,6.9239686E-6,5.3624885E-6,4.015566E-6,2.416914E-6,0E0,0E0,0E0,0E0,0E0,0E0,0E0,0E0,0E0,0E0,0E0,0E0,0E0,0E0,0E0,0E0,0E0,0E0,0E0,0E0,0E0,0E0,0E0,0E0,0E0,0E0,0E0,0E0,0E0,0E0,0E0,0E0,0E0,0E0,0E0,0E0,0E0,0E0,0E0,0E0,0E0,0E0,0E0,0E0,0E0,0E0,0E0,0E0,0E0,0E0],"parents":[2147483647,0,0,1,1,2,2,3,3,4,4,5,5,6,6,7,7,8,8,9,9,10,10,11,11,12,12,13,13,14,14,15,15,16,16,17,17,18,18,19,19,20,20,21,21,22,22,25,25,26,26,27,27,28,28,29,29,30,30,32,32,33,33,34,34,35,35,36,36,37,37,38,38,39,39,40,40,41,41,42,42,43,43,44,44,45,45,46,46,49,49,50,50,51,51,52,52,53,53,54,54,55,55,56,56,57,57,58,58],"right_children":[2,4,6,8,10,12,14,16,18,20,22,24,26,28,30,32,34,36,38,40,42,44,46,-1,-1,48,50,52,54,56,58,-1,60,62,64,66,68,70,72,74,76,78,80,82,84,86,88,-1,-1,90,92,94,96,98,100,102,104,106,108,-1,-1,-1,-1,-1,-1,-1,-1,-1,-1,-1,-1,-1,-1,-1,-1,-1,-1,-1,-1,-1,-1,-1,-1,-1,-1,-1,-1,-1,-1,-1,-1,-1,-1,-1,-1,-1,-1,-1,-1,-1,-1,-1,-1,-1,-1,-1,-1,-1,-1],"split_conditions":[1.1E1,-8E0,5E0,5E0,9.625E1,1.4E1,1E1,-1.85E1,1.1E1,3.0625E1,1.1625E2,1.225E2,2.4E1,1.6E1,3.25E1,-6.9E1,2.4375E1,-1.75E1,-1.85E1,3E0,4E0,1.1E1,1.325E2,-7.2869525E-6,8.905093E-6,1.0875E2,5.25E1,7E0,7E1,1.0625E2,5.125E1,-1.2997245E-6,5.6875E1,-4.5E1,5.125E1,-3.35E1,1.4875E2,-2.75E1,1.2E1,1.5E0,-2.5E0,-2.5E0,6E0,3E0,9E0,-4E0,1.425E2,-2.4213386E-6,2.8111185E-6,3.05E1,3.65E1,-7.5E1,5.5625E1,8.75E1,1.3125E2,-6E1,2.05E1,-7.25E1,1.325E2,1.2682218E-6,-6.178497E-7,3.2443465E-6,-7.847155E-7,1.2705753E-5,3.9379347E-6,-4.3375215E-7,-1.6056728E-6,-5.117957E-6,3.6978292E-6,-1.3705461E-6,1.1830941E-6,2.8364568E-6,8.295152E-6,6.3666607E-6,-7.31075E-6,2.994442E-7,4.486622E-6,6.503562E-6,-5.578404E-6,3.4651875E-6,-8.334237E-7,5.5285236E-6,1.6673224E-6,1.5240667E-5,-7.323396E-7,-3.5572946E-6,1.7914965E-6,9.029879E-6,3.118489E-6,-3.0852775E-6,-3.059582E-7,1.08853E-6,-1.7587596E-6,1.6058419E-5,-1.1499527E-6,7.627691E-6,1.2920335E-5,1.7094205E-8,1.6375644E-6,-9.941726E-7,-3.0680092E-6,8.169521E-7,-3.89642E-6,1.2193125E-5,1.4667187E-6,-6.695449E-7,1.5705391E-6,-2.0025345E-6,5.1691654E-7],"split_indices":[0,0,2,2,1,0,2,0,2,1,1,1,0,0,0,0,1,0,0,2,2,2,1,0,0,1,1,2,0,1,1,0,1,1,1,0,1,0,2,0,0,0,2,0,0,0,1,0,0,0,0,1,1,1,1,1,0,1,1,0,0,0,0,0,0,0,0,0,0,0,0,0,0,0,0,0,0,0,0,0,0,0,0,0,0,0,0,0,0,0,0,0,0,0,0,0,0,0,0,0,0,0,0,0,0,0,0,0,0],"split_type":[0,0,0,0,0,0,0,0,0,0,0,0,0,0,0,0,0,0,0,0,0,0,0,0,0,0,0,0,0,0,0,0,0,0,0,0,0,0,0,0,0,0,0,0,0,0,0,0,0,0,0,0,0,0,0,0,0,0,0,0,0,0,0,0,0,0,0,0,0,0,0,0,0,0,0,0,0,0,0,0,0,0,0,0,0,0,0,0,0,0,0,0,0,0,0,0,0,0,0,0,0,0,0,0,0,0,0,0,0],"sum_hessian":[5.188898E6,1.824653E6,3.364245E6,1.20686E6,6.17793E5,1.088949E6,2.275296E6,4.70917E5,7.35943E5,4.52825E5,1.64968E5,2.8423E4,1.060526E6,1.59343E6,6.81866E5,3.69102E5,1.01815E5,4.82382E5,2.53561E5,3.60587E5,9.2238E4,6.6561E4,9.8407E4,2.7208E4,1.215E3,9.9836E4,9.6069E5,6.8125E4,1.525305E6,1.79443E5,5.02423E5,1.55753E5,2.13349E5,5.5237E4,4.6578E4,3.63252E5,1.1913E5,2.02701E5,5.086E4,5.962E4,3.00967E5,2.2425E4,6.9813E4,5.5505E4,1.1056E4,5.1089E4,4.7318E4,9.3771E4,6.065E3,5.67662E5,3.93028E5,2.707E4,4.1055E4,1.257561E6,2.67744E5,1.5887E5,2.0573E4,2.8816E5,2.14263E5,1.13945E5,9.9404E4,3.3983E4,2.1254E4,2.1545E4,2.5033E4,1.97236E5,1.66016E5,1.10903E5,8.227E3,1.61583E5,4.1118E4,2.5471E4,2.5389E4,3.039E4,2.923E4,9.075E4,2.10217E5,4.343E3,1.8082E4,1.5604E4,5.4209E4,3.7638E4,1.7867E4,1.0184E4,8.72E2,9.615E3,4.1474E4,1.94E4,2.7918E4,4.9454E4,5.18208E5,5.6924E4,3.36104E5,2.097E3,2.4973E4,3.0738E4,1.0317E4,9.18519E5,3.39042E5,2.44747E5,2.2997E4,3.6381E4,1.22489E5,5.868E3,1.4705E4,1.41728E5,1.46432E5,1.71434E5,4.2829E4],"tree_param":{"num_deleted":"0","num_feature":"4","num_nodes":"109","size_leaf_vector":"1"}},{"base_weights":[5.902941E-11,1.3176463E-6,-9.808243E-7,-1.3740741E-6,3.665141E-6,4.941505E-6,-1.304212E-6,-1.0679814E-6,-9.625165E-8,1.6142229E-6,9.810115E-6,1.3190079E-5,-6.0647864E-7,-6.040016E-6,-6.648023E-7,-7.165102E-7,2.728402E-6,6.5403688E-6,-1.1546657E-6,2.5750238E-5,8.4292005E-6,1.4585489E-6,2.2144073E-5,-1.1080231E-6,3.0111075E-6,-2.9979774E-6,-1.3767974E-6,8.343345E-7,-1.7545143E-6,1.2650022E-6,-4.3546256E-6,9.782266E-6,3.2596968E-6,1.4974056E-6,-7.247307E-6,9.269112E-6,5.0374267E-5,-1.0513984E-5,9.077565E-6,4.9224977E-6,3.07909E-5,2.4138226E-6,-6.104819E-7,1.7663558E-6,-1.421919E-6,1.8607375E-6,-2.5384668E-6,2.1311081E-8,4.2438537E-6,1.1694282E-6,-1.7707414E-6,4.2684965E-6,1.3875402E-7,4.893746E-6,2.586593E-8,-2.5885597E-6,7.4724375E-7,-2.5853574E-6,9.402158E-7,-6.200751E-7,5.7444804E-6,3.9091915E-6,2.9747445E-5,-6.803825E-6,3.501345E-7,2.8068166E-6,-2.7491367E-6,1.5294841E-5,7.2562175E-6,-2.0654963E-6,7.716732E-7,-2.196638E-6,3.2885416E-6,-1.956769E-6,-1.9280003E-7],"categories":[],"categories_nodes":[],"categories_segments":[],"categories_sizes":[],"default_left":[0,0,0,0,0,0,0,0,0,0,0,0,0,0,0,0,0,0,0,0,0,0,0,0,0,0,0,0,0,0,0,0,0,0,0,0,0,0,0,0,0,0,0,0,0,0,0,0,0,0,0,0,0,0,0,0,0,0,0,0,0,0,0,0,0,0,0,0,0,0,0,0,0,0,0],"id":5,"left_children":[1,3,5,7,9,11,13,-1,15,17,19,21,23,25,27,29,-1,31,33,35,37,-1,39,-1,41,-1,-1,43,45,47,49,51,53,55,57,59,61,63,65,-1,67,-1,-1,69,-1,71,73,-1,-1,-1,-1,-1,-1,-1,-1,-1,-1,-1,-1,-1,-1,-1,-1,-1,-1,-1,-1,-1,-1,-1,-1,-1,-1,-1,-1],"loss_changes":[6.706132E-6,1.3992281E-5,5.696814E-6,2.8813058E-6,1.4906953E-5,7.0480974E-6,8.540803E-6,0E0,3.7111947E-6,1.209646E-5,6.515038E-6,4.618304E-6,1.0283019E-6,1.9241006E-6,4.059546E-6,4.3963605E-6,0E0,3.3938932E-6,9.173476E-6,9.575946E-6,3.3456272E-6,0E0,1.4796879E-6,0E0,1.0771835E-6,0E0,0E0,5.4341062E-6,4.0783816E-6,6.072064E-6,2.746866E-6,6.65062E-6,6.5699737E-6,3.9789484E-6,2.4498358E-6,1.5832477E-6,1.7234444E-5,1.2811087E-6,1.3380486E-6,0E0,1.5856149E-6,0E0,0E0,6.248008E-6,0E0,2.143126E-5,8.931938E-6,0E0,0E0,0E0,0E0,0E0,0E0,0E0,0E0,0E0,0E0,0E0,0E0,0E0,0E0,0E0,0E0,0E0,0E0,0E0,0E0,0E0,0E0,0E0,0E0,0E0,0E0,0E0,0E0],"parents":[2147483647,0,0,1,1,2,2,3,3,4,4,5,5,6,6,8,8,9,9,10,10,11,11,12,12,13,13,14,14,15,15,17,17,18,18,19,19,20,20,22,22,24,24,27,27,28,28,29,29,30,30,31,31,32,32,33,33,34,34,35,35,36,36,37,37,38,38,40,40,43,43,45,45,46,46],"right_children":[2,4,6,8,10,12,14,-1,16,18,20,22,24,26,28,30,-1,32,34,36,38,-1,40,-1,42,-1,-1,44,46,48,50,52,54,56,58,60,62,64,66,-1,68,-1,-1,70,-1,72,74,-1,-1,-1,-1,-1,-1,-1,-1,-1,-1,-1,-1,-1,-1,-1,-1,-1,-1,-1,-1,-1,-1,-1,-1,-1,-1,-1,-1],"split_conditions":[2.3E1,-1.45E1,-1.28125E2,-6.7E1,8.0625E1,6.2E1,-9.875E1,-1.0679814E-6,1.51875E2,-4.5E1,9.5E1,-1.50625E2,7E0,4.4E1,3.375E1,1E2,2.728402E-6,7E0,1.4E1,8.9375E1,2.016E3,1.4585489E-6,8E0,-1.1080231E-6,9E0,-2.9979774E-6,-1.3767974E-6,7.2E1,3.8E1,4.5625E1,-3.6E1,7E0,-8.125E1,-2.75E1,6.0625E1,7E0,1.85E1,1.1E1,1.69375E2,4.9224977E-6,-1.3875E2,2.4138226E-6,-6.104819E-7,2.9E1,-1.421919E-6,8.3125E1,5.15E1,2.1311081E-8,4.2438537E-6,1.1694282E-6,-1.7707414E-6,4.2684965E-6,1.3875402E-7,4.893746E-6,2.586593E-8,-2.5885597E-6,7.4724375E-7,-2.5853574E-6,9.402158E-7,-6.200751E-7,5.7444804E-6,3.9091915E-6,2.9747445E-5,-6.803825E-6,3.501345E-7,2.8068166E-6,-2.7491367E-6,1.5294841E-5,7.2562175E-6,-2.0654963E-6,7.716732E-7,-2.196638E-6,3.2885416E-6,-1.956769E-6,-1.9280003E-7],"split_indices":[0,0,1,0,1,0,1,0,1,1,1,1,2,0,1,1,0,2,0,1,3,0,2,0,2,0,0,0,0,1,0,0,1,1,1,2,0,2,1,0,1,0,0,0,0,1,0,0,0,0,0,0,0,0,0,0,0,0,0,0,0,0,0,0,0,0,0,0,0,0,0,0,0,0,0],"split_type":[0,0,0,0,0,0,0,0,0,0,0,0,0,0,0,0,0,0,0,0,0,0,0,0,0,0,0,0,0,0,0,0,0,0,0,0,0,0,0,0,0,0,0,0,0,0,0,0,0,0,0,0,0,0,0,0,0,0,0,0,0,0,0,0,0,0,0,0,0,0,0,0,0,0,0],"sum_hessian":[5.188898E6,2.214387E6,2.974511E6,1.031562E6,1.182825E6,1.54012E5,2.820499E6,3.80563E5,6.50999E5,8.86839E5,2.95986E5,6.1932E4,9.208E4,3.35512E5,2.484987E6,6.09844E5,4.1155E4,3.19109E5,5.6773E5,2.3596E4,2.7239E5,3.2088E4,2.9844E4,4.9684E4,4.2396E4,9.0067E4,2.45445E5,1.045994E6,1.438993E6,3.9481E5,2.15034E5,1.60502E5,1.58607E5,3.95551E5,1.72179E5,1.4136E4,9.46E3,9.014E3,2.63376E5,1.7944E4,1.19E4,2.1221E4,2.1175E4,8.96152E5,1.49842E5,2.56433E5,1.18256E6,3.6132E5,3.349E4,3.3961E4,1.81073E5,1.08663E5,5.1839E4,3.1019E4,1.27588E5,3.5338E4,3.60213E5,1.52099E5,2.008E4,6.583E3,7.553E3,5.359E3,4.101E3,4.415E3,4.599E3,2.59416E5,3.96E3,2.931E3,8.969E3,7.6364E4,8.19788E5,1.27643E5,1.2879E5,3.81281E5,8.01279E5],"tree_param":{"num_deleted":"0","num_feature":"4","num_nodes":"75","size_leaf_vector":"1"}},{"base_weights":[5.367021E-11,9.356576E-7,-6.8675837E-7,-9.511364E-7,2.644223E-6,3.3213457E-6,-9.265273E-7,-1.2395778E-6,-3.7406244E-7,1.2093305E-6,6.953566E-6,7.958121E-6,-4.2973446E-7,-4.685184E-6,-4.7639878E-7,4.035294E-6,-1.0032669E-6,4.700776E-6,-7.586521E-7,1.9753154E-5,6.083984E-6,6.661532E-7,1.1325296E-5,-2.624273E-6,-1.1190311E-6,-2.5460767E-7,-1.2702701E-6,5.0899257E-7,9.254434E-6,-8.778757E-6,-3.5180966E-7,-1.31610595E-5,5.325874E-6,1.38452E-6,-4.501319E-6,1.641751E-6,5.0863353E-5,-2.3363161E-6,6.55955E-6,1.4918965E-5,5.320681E-6,1.773614E-6,-9.074787E-7,8.182776E-6,1.428722E-6,1.6125425E-6,-4.436322E-6,9.4737516E-7,-4.8693596E-7,5.799124E-6,-6.1101928E-6,3.2448063E-6,1.2775135E-6,6.706805E-7,-2.4241242E-6,-7.327671E-7,-3.4893842E-6,1.7520582E-6,3.2289052E-5,1.2297221E-6,2.4899214E-6,6.4615065E-6,2.1295068E-6,5.236841E-6,-1.0851386E-6,1.7455571E-6,-7.884507E-8,-6.431013E-7,2.2241626E-7],"categories":[],"categories_nodes":[],"categories_segments":[],"categories_sizes":[],"default_left":[0,0,0,0,0,0,0,0,0,0,0,0,0,0,0,0,0,0,0,0,0,0,0,0,0,0,0,0,0,0,0,0,0,0,0,0,0,0,0,0,0,0,0,0,0,0,0,0,0,0,0,0,0,0,0,0,0,0,0,0,0,0,0,0,0,0,0,0,0],"id":6,"left_children":[1,3,5,7,9,11,13,-1,15,17,19,21,-1,23,25,27,29,31,33,35,37,-1,39,-1,-1,41,-1,-1,43,45,47,49,51,53,55,-1,57,-1,59,61,63,65,67,-1,-1,-1,-1,-1,-1,-1,-1,-1,-1,-1,-1,-1,-1,-1,-1,-1,-1,-1,-1,-1,-1,-1,-1,-1,-1],"loss_changes":[3.3343044E-6,7.0812066E-6,2.8756597E-6,1.9160493E-6,7.1279264E-6,3.7229297E-6,4.7768513E-6,0E0,2.4513356E-6,5.942094E-6,3.2048702E-6,1.6518334E-6,0E0,1.1715538E-6,2.1015046E-6,1.3467304E-6,3.916675E-6,3.480725E-6,4.436192E-6,8.137931E-6,1.7788116E-6,0E0,1.1625962E-6,0E0,0E0,3.1527352E-6,0E0,0E0,2.7637673E-6,5.083975E-6,3.1833754E-6,2.4684805E-6,1.7651755E-6,2.8329355E-6,2.9560365E-6,0E0,1.472857E-5,0E0,1.1161947E-6,1.7447792E-6,2.188332E-6,4.7757203E-6,3.6712995E-6,0E0,0E0,0E0,0E0,0E0,0E0,0E0,0E0,0E0,0E0,0E0,0E0,0E0,0E0,0E0,0E0,0E0,0E0,0E0,0E0,0E0,0E0,0E0,0E0,0E0,0E0],"parents":[2147483647,0,0,1,1,2,2,3,3,4,4,5,5,6,6,8,8,9,9,10,10,11,11,13,13,14,14,15,15,16,16,17,17,18,18,19,19,20,20,22,22,25,25,28,28,29,29,30,30,31,31,32,32,33,33,34,34,36,36,38,38,39,39,40,40,41,41,42,42],"right_children":[2,4,6,8,10,12,14,-1,16,18,20,22,-1,24,26,28,30,32,34,36,38,-1,40,-1,-1,42,-1,-1,44,46,48,50,52,54,56,-1,58,-1,60,62,64,66,68,-1,-1,-1,-1,-1,-1,-1,-1,-1,-1,-1,-1,-1,-1,-1,-1,-1,-1,-1,-1,-1,-1,-1,-1,-1,-1],"split_conditions":[2.25E1,-1.4E1,-1.25625E2,-7.85E1,8.0625E1,6.35E1,-1E2,-1.2395778E-6,-7.25E1,-4.5E1,9.375E1,-1.54375E2,-4.2973446E-7,3.8E1,7.7E1,-6.8E1,-6.6875E1,-1.09375E2,1.2E1,8.75E1,2.016E3,6.661532E-7,6.05E1,-2.624273E-6,-1.1190311E-6,-3.75E0,-1.2702701E-6,5.0899257E-7,-4.75E1,-5.25E1,-4.3125E1,-1.2E1,-8.125E1,1.2E1,1E1,1.641751E-6,1.55E1,-2.3363161E-6,2.02E3,-1.3125E2,-1.425E2,4.5E1,5.45E1,8.182776E-6,1.428722E-6,1.6125425E-6,-4.436322E-6,9.4737516E-7,-4.8693596E-7,5.799124E-6,-6.1101928E-6,3.2448063E-6,1.2775135E-6,6.706805E-7,-2.4241242E-6,-7.327671E-7,-3.4893842E-6,1.7520582E-6,3.2289052E-5,1.2297221E-6,2.4899214E-6,6.4615065E-6,2.1295068E-6,5.236841E-6,-1.0851386E-6,1.7455571E-6,-7.884507E-8,-6.431013E-7,2.2241626E-7],"split_indices":[0,0,1,0,1,0,1,0,1,1,1,1,0,0,0,0,1,1,0,1,3,0,0,0,0,1,0,0,0,0,1,0,1,2,2,0,0,0,3,1,1,0,0,0,0,0,0,0,0,0,0,0,0,0,0,0,0,0,0,0,0,0,0,0,0,0,0,0,0],"split_type":[0,0,0,0,0,0,0,0,0,0,0,0,0,0,0,0,0,0,0,0,0,0,0,0,0,0,0,0,0,0,0,0,0,0,0,0,0,0,0,0,0,0,0,0,0,0,0,0,0,0,0,0,0,0,0,0,0,0,0,0,0,0,0,0,0,0,0,0,0],"sum_hessian":[5.188898E6,2.196599E6,2.992299E6,1.043855E6,1.152744E6,1.68898E5,2.823401E6,1.60298E5,8.83557E5,8.64793E5,2.87951E5,8.5501E4,8.3397E4,3.01961E5,2.52144E6,1.10336E5,7.73221E5,3.11735E5,5.53058E5,1.8317E4,2.69634E5,3.1621E4,5.388E4,5.7477E4,2.44484E5,2.380917E6,1.40523E5,7.6195E4,3.4141E4,5.9774E4,7.13447E5,1.054E4,3.01195E5,3.51677E5,2.01381E5,1.2555E4,5.762E3,8.937E3,2.60697E5,3.3706E4,2.0174E4,5.79775E5,1.801142E6,6.811E3,2.733E4,1.7814E4,4.196E4,1.8971E5,5.23737E5,1.913E3,8.627E3,4.9029E4,2.52166E5,3.22664E5,2.9013E4,1.56262E5,4.5119E4,3.214E3,2.548E3,1.07999E5,1.52698E5,1.8254E4,1.5452E4,8.556E3,1.1618E4,1.94146E5,3.85629E5,1.029387E6,7.71755E5],"tree_param":{"num_deleted":"0","num_feature":"4","num_nodes":"69","size_leaf_vector":"1"}},{"base_weights":[4.7524578E-11,8.3462675E-7,-4.276356E-7,-3.5932794E-7,4.928162E-6,-2.2304766E-6,8.8096107E-7,3.4015875E-6,-2.7030644E-6,-3.508364E-5,5.4087586E-6,-1.661346E-5,-4.7000222E-7,2.9521361E-6,-1.0764254E-6,4.5845576E-7,1.3038264E-5,-6.928777E-6,1.5773804E-6,-4.4246804E-6,-1.5838787E-5,1.5416217E-5,3.8278836E-6,-2.013855E-5,-3.919282E-6,2.2734932E-5,1.7827938E-6,-2.508099E-7,-4.856049E-6,-2.156601E-7,3.8797934E-6,-2.3181112E-5,1.5317331E-5,-2.1106146E-6,-1.6024203E-5,-5.9389345E-7,1.0543033E-5,-5.611965E-7,1.8653001E-5,-3.5917508E-6,5.2963387E-6,-2.1572974E-5,3.6734127E-5,1.3753049E-5,-2.1724074E-6,1.0530447E-5,2.8830602E-5,4.1788286E-7,4.330613E-6,4.1748085E-6,-8.046055E-7,-2.4981397E-5,-2.881672E-6,2.7638257E-6,-4.5150202E-7,5.3886597E-6,-9.141179E-6,5.4819966E-6,1.9162026E-6,-6.043358E-8,-1.8031473E-6,-5.8917553E-6,1.2750081E-6,-7.0810074E-7,8.1948224E-7,-1.3802423E-6,5.4219067E-6,3.4808775E-6,-4.9606297E-6,8.147219E-6,3.0451338E-6,2.4096448E-6,-4.649918E-6,1.8937334E-6,-1.1775772E-6,-7.769514E-6,-4.9873674E-6,1.9620082E-5,2.2752076E-6,1.8225346E-5,2.0007005E-6,-8.937949E-7,1.0430977E-5,7.740946E-7,-6.0146E-7,5.6049544E-6,4.6339923E-7,9.612402E-6,1.9442201E-7,-6.9244413E-7,6.762281E-8,-8.479137E-6,1.2144048E-5,3.716549E-6,-1.0397761E-6],"categories":[],"categories_nodes":[],"categories_segments":[],"categories_sizes":[],"default_left":[0,0,0,0,0,0,0,0,0,0,0,0,0,0,0,0,0,0,0,0,0,0,0,0,0,0,0,0,0,0,0,0,0,0,0,0,0,0,0,0,0,0,0,0,0,0,0,0,0,0,0,0,0,0,0,0,0,0,0,0,0,0,0,0,0,0,0,0,0,0,0,0,0,0,0,0,0,0,0,0,0,0,0,0,0,0,0,0,0,0,0,0,0,0,0],"id":7,"left_children":[1,3,5,7,9,11,13,15,17,19,21,23,-1,25,27,29,31,33,35,-1,-1,37,39,41,43,45,47,49,51,-1,53,55,57,59,61,63,65,67,69,71,73,75,77,-1,-1,79,81,83,85,87,89,91,93,-1,-1,-1,-1,-1,-1,-1,-1,-1,-1,-1,-1,-1,-1,-1,-1,-1,-1,-1,-1,-1,-1,-1,-1,-1,-1,-1,-1,-1,-1,-1,-1,-1,-1,-1,-1,-1,-1,-1,-1,-1,-1],"loss_changes":[1.8521025E-6,8.592792E-6,8.093877E-6,1.19977485E-5,7.634235E-6,1.37760635E-5,8.059041E-6,1.4821158E-5,1.5167682E-5,1.696364E-6,6.2061017E-6,2.8483628E-6,0E0,2.2343182E-5,3.1892096E-6,1.6124709E-6,1.0092392E-5,1.8492232E-5,8.109502E-6,0E0,0E0,2.7675633E-6,3.6910633E-6,4.065083E-6,2.2876404E-6,4.009931E-6,3.1713853E-6,2.0557864E-6,7.280338E-6,0E0,2.9430958E-6,2.1713208E-6,3.036117E-6,2.0538391E-6,1.0709791E-5,1.970031E-6,9.261499E-6,1.7521137E-6,3.2174794E-6,7.74747E-6,2.649902E-6,1.0396925E-6,1.0239755E-6,0E0,0E0,3.481898E-6,6.7919264E-6,3.1111256E-6,1.2720442E-5,9.168126E-6,1.1545404E-6,3.5183612E-6,1.4886604E-6,0E0,0E0,0E0,0E0,0E0,0E0,0E0,0E0,0E0,0E0,0E0,0E0,0E0,0E0,0E0,0E0,0E0,0E0,0E0,0E0,0E0,0E0,0E0,0E0,0E0,0E0,0E0,0E0,0E0,0E0,0E0,0E0,0E0,0E0,0E0,0E0,0E0,0E0,0E0,0E0,0E0,0E0],"parents":[2147483647,0,0,1,1,2,2,3,3,4,4,5,5,6,6,7,7,8,8,9,9,10,10,11,11,13,13,14,14,15,15,16,16,17,17,18,18,21,21,22,22,23,23,24,24,25,25,26,26,27,27,28,28,30,30,31,31,32,32,33,33,34,34,35,35,36,36,37,37,38,38,39,39,40,40,41,41,42,42,45,45,46,46,47,47,48,48,49,49,50,50,51,51,52,52],"right_children":[2,4,6,8,10,12,14,16,18,20,22,24,-1,26,28,30,32,34,36,-1,-1,38,40,42,44,46,48,50,52,-1,54,56,58,60,62,64,66,68,70,72,74,76,78,-1,-1,80,82,84,86,88,90,92,94,-1,-1,-1,-1,-1,-1,-1,-1,-1,-1,-1,-1,-1,-1,-1,-1,-1,-1,-1,-1,-1,-1,-1,-1,-1,-1,-1,-1,-1,-1,-1,-1,-1,-1,-1,-1,-1,-1,-1,-1,-1,-1],"split_conditions":[9E0,-3.5E0,6E0,5E0,-8.8125E1,1.4E1,9E0,-1.55E1,1E1,-1.54375E2,-6.5625E1,5E0,-4.7000222E-7,1.55E1,1.2E1,-2.6E1,-7.375E1,-1.6E1,-1.4E1,-4.4246804E-6,-1.5838787E-5,3E0,3E0,1.24375E2,-7.5625E1,7E0,6.875E1,2.05E1,1.6E1,-2.156601E-7,3E0,-1.6E2,4E0,-2.7E1,1.35E2,-3.15E1,1.1E1,3.5E0,8E0,2.5E0,1.2E1,1.15E1,3E0,1.3753049E-5,-2.1724074E-6,-7.5625E1,-2E1,-3.875E1,3.3E1,-7.6875E1,4.9E1,1.21875E2,-1.1875E2,2.7638257E-6,-4.5150202E-7,5.3886597E-6,-9.141179E-6,5.4819966E-6,1.9162026E-6,-6.043358E-8,-1.8031473E-6,-5.8917553E-6,1.2750081E-6,-7.0810074E-7,8.1948224E-7,-1.3802423E-6,5.4219067E-6,3.4808775E-6,-4.9606297E-6,8.147219E-6,3.0451338E-6,2.4096448E-6,-4.649918E-6,1.8937334E-6,-1.1775772E-6,-7.769514E-6,-4.9873674E-6,1.9620082E-5,2.2752076E-6,1.8225346E-5,2.0007005E-6,-8.937949E-7,1.0430977E-5,7.740946E-7,-6.0146E-7,5.6049544E-6,4.6339923E-7,9.612402E-6,1.9442201E-7,-6.9244413E-7,6.762281E-8,-8.479137E-6,1.2144048E-5,3.716549E-6,-1.0397761E-6],"split_indices":[0,0,2,2,1,0,2,0,2,1,1,2,0,0,2,0,1,0,0,0,0,2,2,1,1,2,1,0,0,0,2,1,2,0,1,0,2,0,2,0,2,0,2,0,0,1,1,1,0,1,0,1,1,0,0,0,0,0,0,0,0,0,0,0,0,0,0,0,0,0,0,0,0,0,0,0,0,0,0,0,0,0,0,0,0,0,0,0,0,0,0,0,0,0,0],"split_type":[0,0,0,0,0,0,0,0,0,0,0,0,0,0,0,0,0,0,0,0,0,0,0,0,0,0,0,0,0,0,0,0,0,0,0,0,0,0,0,0,0,0,0,0,0,0,0,0,0,0,0,0,0,0,0,0,0,0,0,0,0,0,0,0,0,0,0,0,0,0,0,0,0,0,0,0,0,0,0,0,0,0,0,0,0,0,0,0,0,0,0,0,0,0,0],"sum_hessian":[5.188898E6,1.758116E6,3.430782E6,1.361121E6,3.96995E5,1.442905E6,1.987877E6,5.2257E5,8.38551E5,4.711E3,3.92284E5,6.3654E4,1.379251E6,9.65864E5,1.022013E6,4.00312E5,1.22258E5,4.21973E5,4.16578E5,2.194E3,2.517E3,5.3514E4,3.3877E5,4.9819E4,1.3835E4,5.3904E4,9.1196E5,8.3879E5,1.83223E5,2.97827E5,1.02485E5,7.237E3,1.15021E5,2.75848E5,1.46125E5,3.35362E5,8.1216E4,9.015E3,4.4499E4,5.597E4,2.828E5,4.8594E4,1.225E3,8.65E2,1.297E4,1.7956E4,3.5948E4,5.93834E5,3.18126E5,9.3287E4,7.45503E5,1.6368E4,1.66855E5,5.149E4,5.0995E4,1.089E3,6.148E3,8.6415E4,2.8606E4,1.8519E5,9.0658E4,1.24013E5,2.2112E4,2.19022E5,1.1634E5,2.6972E4,5.4244E4,5.118E3,3.897E3,2.2246E4,2.2253E4,2.8323E4,2.7647E4,2.54732E5,2.8068E4,2.5927E4,2.2667E4,6.17E2,6.08E2,1.281E3,1.6675E4,5.656E3,3.0292E4,3.13774E5,2.8006E5,5.1712E4,2.66414E5,1.0479E4,8.2808E4,3.03083E5,4.4242E5,1.5587E4,7.81E2,6.148E3,1.60707E5],"tree_param":{"num_deleted":"0","num_feature":"4","num_nodes":"95","size_leaf_vector":"1"}},{"base_weights":[4.5366343E-11,1.8879749E-7,-1.7970618E-6,-5.6901973E-7,3.395722E-7,-1.0791996E-6,-2.3588523E-6,1.2405534E-6,-1.4504752E-7,-7.506021E-7,2.2820015E-7,-1.1193466E-6,2.4074104E-6,-1.235551E-6,6.915088E-7,2.9185867E-6,-1.1108374E-6,6.8451124E-7,3.3744482E-6,-1.7517045E-6,6.866317E-7,-1.9766203E-8,2.160418E-6,1.3432482E-6,-2.977406E-7,-5.0373507E-7,2.2295876E-6,1.4972887E-6,6.085531E-9,-8.803755E-7,-1.0483784E-8,1.0684577E-6,-9.560808E-7,-2.9057034E-7,1.7437416E-6,1.051317E-6,-1.3354323E-6],"categories":[],"categories_nodes":[],"categories_segments":[],"categories_sizes":[],"default_left":[0,0,0,0,0,0,0,0,0,0,0,0,0,0,0,0,0,0,0,0,0,0,0,0,0,0,0,0,0,0,0,0,0,0,0,0,0],"id":8,"left_children":[1,3,5,-1,7,9,-1,11,13,-1,-1,15,17,19,21,23,-1,25,27,29,31,33,35,-1,-1,-1,-1,-1,-1,-1,-1,-1,-1,-1,-1,-1,-1],"loss_changes":[1.7601154E-6,1.4765425E-6,2.1475566E-6,0E0,1.9120673E-6,1.1544544E-6,0E0,4.2175566E-6,2.5976847E-6,0E0,0E0,5.2862924E-6,1.7075376E-6,1.2264167E-6,1.68356E-6,1.2054796E-6,0E0,5.8761093E-6,3.5591706E-6,1.9788617E-6,2.9139712E-6,6.0077136E-6,4.671492E-6,0E0,0E0,0E0,0E0,0E0,0E0,0E0,0E0,0E0,0E0,0E0,0E0,0E0,0E0],"parents":[2147483647,0,0,1,1,2,2,4,4,5,5,7,7,8,8,11,11,12,12,13,13,14,14,15,15,17,17,18,18,19,19,20,20,21,21,22,22],"right_children":[2,4,6,-1,8,10,-1,12,14,-1,-1,16,18,20,22,24,-1,26,28,30,32,34,36,-1,-1,-1,-1,-1,-1,-1,-1,-1,-1,-1,-1,-1,-1],"split_conditions":[6.85E1,-7.05E1,1.30625E2,-5.6901973E-7,-6.875E0,-8.125E0,-2.3588523E-6,-9.4375E1,2.02E3,-7.506021E-7,2.2820015E-7,-1.21875E2,-5.5E0,5.4E1,1.0875E2,6.4E1,-1.1108374E-6,1E1,4.85E1,8.9375E1,9.75E1,5.8E1,5.9E1,1.3432482E-6,-2.977406E-7,-5.0373507E-7,2.2295876E-6,1.4972887E-6,6.085531E-9,-8.803755E-7,-1.0483784E-8,1.0684577E-6,-9.560808E-7,-2.9057034E-7,1.7437416E-6,1.051317E-6,-1.3354323E-6],"split_indices":[0,0,1,0,1,1,0,1,3,0,0,1,0,0,1,0,0,2,0,1,1,0,0,0,0,0,0,0,0,0,0,0,0,0,0,0,0],"split_type":[0,0,0,0,0,0,0,0,0,0,0,0,0,0,0,0,0,0,0,0,0,0,0,0,0,0,0,0,0,0,0,0,0,0,0,0,0],"sum_hessian":[5.188898E6,4.695704E6,4.93194E5,3.1659E5,4.379114E6,4.41004E5,5.219E4,1.531613E6,2.847501E6,2.48688E5,1.92316E5,5.06747E5,1.024866E6,1.236129E6,1.611372E6,1.97716E5,3.09031E5,3.68442E5,6.56424E5,9.74462E5,2.61667E5,1.08567E6,5.25702E5,1.41368E5,5.6348E4,2.7286E5,9.5582E4,4.42948E5,2.13476E5,5.76939E5,3.97523E5,1.50195E5,1.11472E5,9.33764E5,1.51906E5,4.36896E5,8.8806E4],"tree_param":{"num_deleted":"0","num_feature":"4","num_nodes":"37","size_leaf_vector":"1"}},{"base_weights":[3.1814877E-11],"categories":[],"categories_nodes":[],"categories_segments":[],"categories_sizes":[],"default_left":[0],"id":9,"left_children":[-1],"loss_changes":[0E0],"parents":[2147483647],"right_children":[-1],"split_conditions":[9.544463E-12],"split_indices":[0],"split_type":[0],"sum_hessian":[5.188898E6],"tree_param":{"num_deleted":"0","num_feature":"4","num_nodes":"1","size_leaf_vector":"1"}},{"base_weights":[2.2462782E-11],"categories":[],"categories_nodes":[],"categories_segments":[],"categories_sizes":[],"default_left":[0],"id":10,"left_children":[-1],"loss_changes":[0E0],"parents":[2147483647],"right_children":[-1],"split_conditions":[6.7388348E-12],"split_indices":[0],"split_type":[0],"sum_hessian":[5.188898E6],"tree_param":{"num_deleted":"0","num_feature":"4","num_nodes":"1","size_leaf_vector":"1"}},{"base_weights":[1.5395232E-11],"categories":[],"categories_nodes":[],"categories_segments":[],"categories_sizes":[],"default_left":[0],"id":11,"left_children":[-1],"loss_changes":[0E0],"parents":[2147483647],"right_children":[-1],"split_conditions":[4.61857E-12],"split_indices":[0],"split_type":[0],"sum_hessian":[5.188898E6],"tree_param":{"num_deleted":"0","num_feature":"4","num_nodes":"1","size_leaf_vector":"1"}},{"base_weights":[1.0387658E-11],"categories":[],"categories_nodes":[],"categories_segments":[],"categories_sizes":[],"default_left":[0],"id":12,"left_children":[-1],"loss_changes":[0E0],"parents":[2147483647],"right_children":[-1],"split_conditions":[3.1162974E-12],"split_indices":[0],"split_type":[0],"sum_hessian":[5.188898E6],"tree_param":{"num_deleted":"0","num_feature":"4","num_nodes":"1","size_leaf_vector":"1"}},{"base_weights":[7.2320166E-12],"categories":[],"categories_nodes":[],"categories_segments":[],"categories_sizes":[],"default_left":[0],"id":13,"left_children":[-1],"loss_changes":[0E0],"parents":[2147483647],"right_children":[-1],"split_conditions":[2.169605E-12],"split_indices":[0],"split_type":[0],"sum_hessian":[5.188898E6],"tree_param":{"num_deleted":"0","num_feature":"4","num_nodes":"1","size_leaf_vector":"1"}},{"base_weights":[5.165778E-12],"categories":[],"categories_nodes":[],"categories_segments":[],"categories_sizes":[],"default_left":[0],"id":14,"left_children":[-1],"loss_changes":[0E0],"parents":[2147483647],"right_children":[-1],"split_conditions":[1.5497334E-12],"split_indices":[0],"split_type":[0],"sum_hessian":[5.188898E6],"tree_param":{"num_deleted":"0","num_feature":"4","num_nodes":"1","size_leaf_vector":"1"}},{"base_weights":[3.875402E-12],"categories":[],"categories_nodes":[],"categories_segments":[],"categories_sizes":[],"default_left":[0],"id":15,"left_children":[-1],"loss_changes":[0E0],"parents":[2147483647],"right_children":[-1],"split_conditions":[1.1626207E-12],"split_indices":[0],"split_type":[0],"sum_hessian":[5.188898E6],"tree_param":{"num_deleted":"0","num_feature":"4","num_nodes":"1","size_leaf_vector":"1"}},{"base_weights":[2.764855E-12],"categories":[],"categories_nodes":[],"categories_segments":[],"categories_sizes":[],"default_left":[0],"id":16,"left_children":[-1],"loss_changes":[0E0],"parents":[2147483647],"right_children":[-1],"split_conditions":[8.294565E-13],"split_indices":[0],"split_type":[0],"sum_hessian":[5.188898E6],"tree_param":{"num_deleted":"0","num_feature":"4","num_nodes":"1","size_leaf_vector":"1"}},{"base_weights":[2.5370355E-12],"categories":[],"categories_nodes":[],"categories_segments":[],"categories_sizes":[],"default_left":[0],"id":17,"left_children":[-1],"loss_changes":[0E0],"parents":[2147483647],"right_children":[-1],"split_conditions":[7.611107E-13],"split_indices":[0],"split_type":[0],"sum_hessian":[5.188898E6],"tree_param":{"num_deleted":"0","num_feature":"4","num_nodes":"1","size_leaf_vector":"1"}},{"base_weights":[2.3107909E-12],"categories":[],"categories_nodes":[],"categories_segments":[],"categories_sizes":[],"default_left":[0],"id":18,"left_children":[-1],"loss_changes":[0E0],"parents":[2147483647],"right_children":[-1],"split_conditions":[6.932373E-13],"split_indices":[0],"split_type":[0],"sum_hessian":[5.188898E6],"tree_param":{"num_deleted":"0","num_feature":"4","num_nodes":"1","size_leaf_vector":"1"}},{"base_weights":[2.0846274E-12],"categories":[],"categories_nodes":[],"categories_segments":[],"categories_sizes":[],"default_left":[0],"id":19,"left_children":[-1],"loss_changes":[0E0],"parents":[2147483647],"right_children":[-1],"split_conditions":[6.2538825E-13],"split_indices":[0],"split_type":[0],"sum_hessian":[5.188898E6],"tree_param":{"num_deleted":"0","num_feature":"4","num_nodes":"1","size_leaf_vector":"1"}},{"base_weights":[1.880757E-12],"categories":[],"categories_nodes":[],"categories_segments":[],"categories_sizes":[],"default_left":[0],"id":20,"left_children":[-1],"loss_changes":[0E0],"parents":[2147483647],"right_children":[-1],"split_conditions":[5.6422716E-13],"split_indices":[0],"split_type":[0],"sum_hessian":[5.188898E6],"tree_param":{"num_deleted":"0","num_feature":"4","num_nodes":"1","size_leaf_vector":"1"}},{"base_weights":[1.6769205E-12],"categories":[],"categories_nodes":[],"categories_segments":[],"categories_sizes":[],"default_left":[0],"id":21,"left_children":[-1],"loss_changes":[0E0],"parents":[2147483647],"right_children":[-1],"split_conditions":[5.030762E-13],"split_indices":[0],"split_type":[0],"sum_hessian":[5.188898E6],"tree_param":{"num_deleted":"0","num_feature":"4","num_nodes":"1","size_leaf_vector":"1"}},{"base_weights":[1.4739037E-12],"categories":[],"categories_nodes":[],"categories_segments":[],"categories_sizes":[],"default_left":[0],"id":22,"left_children":[-1],"loss_changes":[0E0],"parents":[2147483647],"right_children":[-1],"split_conditions":[4.4217112E-13],"split_indices":[0],"split_type":[0],"sum_hessian":[5.188898E6],"tree_param":{"num_deleted":"0","num_feature":"4","num_nodes":"1","size_leaf_vector":"1"}},{"base_weights":[1.449791E-12],"categories":[],"categories_nodes":[],"categories_segments":[],"categories_sizes":[],"default_left":[0],"id":23,"left_children":[-1],"loss_changes":[0E0],"parents":[2147483647],"right_children":[-1],"split_conditions":[4.3493732E-13],"split_indices":[0],"split_type":[0],"sum_hessian":[5.188898E6],"tree_param":{"num_deleted":"0","num_feature":"4","num_nodes":"1","size_leaf_vector":"1"}},{"base_weights":[1.4258922E-12],"categories":[],"categories_nodes":[],"categories_segments":[],"categories_sizes":[],"default_left":[0],"id":24,"left_children":[-1],"loss_changes":[0E0],"parents":[2147483647],"right_children":[-1],"split_conditions":[4.2776766E-13],"split_indices":[0],"split_type":[0],"sum_hessian":[5.188898E6],"tree_param":{"num_deleted":"0","num_feature":"4","num_nodes":"1","size_leaf_vector":"1"}},{"base_weights":[1.4018625E-12],"categories":[],"categories_nodes":[],"categories_segments":[],"categories_sizes":[],"default_left":[0],"id":25,"left_children":[-1],"loss_changes":[0E0],"parents":[2147483647],"right_children":[-1],"split_conditions":[4.2055874E-13],"split_indices":[0],"split_type":[0],"sum_hessian":[5.188898E6],"tree_param":{"num_deleted":"0","num_feature":"4","num_nodes":"1","size_leaf_vector":"1"}},{"base_weights":[1.3777867E-12],"categories":[],"categories_nodes":[],"categories_segments":[],"categories_sizes":[],"default_left":[0],"id":26,"left_children":[-1],"loss_changes":[0E0],"parents":[2147483647],"right_children":[-1],"split_conditions":[4.13336E-13],"split_indices":[0],"split_type":[0],"sum_hessian":[5.188898E6],"tree_param":{"num_deleted":"0","num_feature":"4","num_nodes":"1","size_leaf_vector":"1"}},{"base_weights":[1.3537678E-12],"categories":[],"categories_nodes":[],"categories_segments":[],"categories_sizes":[],"default_left":[0],"id":27,"left_children":[-1],"loss_changes":[0E0],"parents":[2147483647],"right_children":[-1],"split_conditions":[4.0613034E-13],"split_indices":[0],"split_type":[0],"sum_hessian":[5.188898E6],"tree_param":{"num_deleted":"0","num_feature":"4","num_nodes":"1","size_leaf_vector":"1"}},{"base_weights":[1.3298925E-12],"categories":[],"categories_nodes":[],"categories_segments":[],"categories_sizes":[],"default_left":[0],"id":28,"left_children":[-1],"loss_changes":[0E0],"parents":[2147483647],"right_children":[-1],"split_conditions":[3.9896775E-13],"split_indices":[0],"split_type":[0],"sum_hessian":[5.188898E6],"tree_param":{"num_deleted":"0","num_feature":"4","num_nodes":"1","size_leaf_vector":"1"}},{"base_weights":[1.3059414E-12],"categories":[],"categories_nodes":[],"categories_segments":[],"categories_sizes":[],"default_left":[0],"id":29,"left_children":[-1],"loss_changes":[0E0],"parents":[2147483647],"right_children":[-1],"split_conditions":[3.9178242E-13],"split_indices":[0],"split_type":[0],"sum_hessian":[5.188898E6],"tree_param":{"num_deleted":"0","num_feature":"4","num_nodes":"1","size_leaf_vector":"1"}},{"base_weights":[1.281906E-12],"categories":[],"categories_nodes":[],"categories_segments":[],"categories_sizes":[],"default_left":[0],"id":30,"left_children":[-1],"loss_changes":[0E0],"parents":[2147483647],"right_children":[-1],"split_conditions":[3.8457182E-13],"split_indices":[0],"split_type":[0],"sum_hessian":[5.188898E6],"tree_param":{"num_deleted":"0","num_feature":"4","num_nodes":"1","size_leaf_vector":"1"}},{"base_weights":[1.25793E-12],"categories":[],"categories_nodes":[],"categories_segments":[],"categories_sizes":[],"default_left":[0],"id":31,"left_children":[-1],"loss_changes":[0E0],"parents":[2147483647],"right_children":[-1],"split_conditions":[3.77379E-13],"split_indices":[0],"split_type":[0],"sum_hessian":[5.188898E6],"tree_param":{"num_deleted":"0","num_feature":"4","num_nodes":"1","size_leaf_vector":"1"}},{"base_weights":[1.2341139E-12],"categories":[],"categories_nodes":[],"categories_segments":[],"categories_sizes":[],"default_left":[0],"id":32,"left_children":[-1],"loss_changes":[0E0],"parents":[2147483647],"right_children":[-1],"split_conditions":[3.702342E-13],"split_indices":[0],"split_type":[0],"sum_hessian":[5.188898E6],"tree_param":{"num_deleted":"0","num_feature":"4","num_nodes":"1","size_leaf_vector":"1"}},{"base_weights":[1.2102321E-12],"categories":[],"categories_nodes":[],"categories_segments":[],"categories_sizes":[],"default_left":[0],"id":33,"left_children":[-1],"loss_changes":[0E0],"parents":[2147483647],"right_children":[-1],"split_conditions":[3.6306965E-13],"split_indices":[0],"split_type":[0],"sum_hessian":[5.188898E6],"tree_param":{"num_deleted":"0","num_feature":"4","num_nodes":"1","size_leaf_vector":"1"}},{"base_weights":[1.1862864E-12],"categories":[],"categories_nodes":[],"categories_segments":[],"categories_sizes":[],"default_left":[0],"id":34,"left_children":[-1],"loss_changes":[0E0],"parents":[2147483647],"right_children":[-1],"split_conditions":[3.5588595E-13],"split_indices":[0],"split_type":[0],"sum_hessian":[5.188898E6],"tree_param":{"num_deleted":"0","num_feature":"4","num_nodes":"1","size_leaf_vector":"1"}},{"base_weights":[1.1624022E-12],"categories":[],"categories_nodes":[],"categories_segments":[],"categories_sizes":[],"default_left":[0],"id":35,"left_children":[-1],"loss_changes":[0E0],"parents":[2147483647],"right_children":[-1],"split_conditions":[3.4872067E-13],"split_indices":[0],"split_type":[0],"sum_hessian":[5.188898E6],"tree_param":{"num_deleted":"0","num_feature":"4","num_nodes":"1","size_leaf_vector":"1"}},{"base_weights":[1.1386401E-12],"categories":[],"categories_nodes":[],"categories_segments":[],"categories_sizes":[],"default_left":[0],"id":36,"left_children":[-1],"loss_changes":[0E0],"parents":[2147483647],"right_children":[-1],"split_conditions":[3.4159204E-13],"split_indices":[0],"split_type":[0],"sum_hessian":[5.188898E6],"tree_param":{"num_deleted":"0","num_feature":"4","num_nodes":"1","size_leaf_vector":"1"}},{"base_weights":[1.1148105E-12],"categories":[],"categories_nodes":[],"categories_segments":[],"categories_sizes":[],"default_left":[0],"id":37,"left_children":[-1],"loss_changes":[0E0],"parents":[2147483647],"right_children":[-1],"split_conditions":[3.3444317E-13],"split_indices":[0],"split_type":[0],"sum_hessian":[5.188898E6],"tree_param":{"num_deleted":"0","num_feature":"4","num_nodes":"1","size_leaf_vector":"1"}},{"base_weights":[1.0913024E-12],"categories":[],"categories_nodes":[],"categories_segments":[],"categories_sizes":[],"default_left":[0],"id":38,"left_children":[-1],"loss_changes":[0E0],"parents":[2147483647],"right_children":[-1],"split_conditions":[3.2739073E-13],"split_indices":[0],"split_type":[0],"sum_hessian":[5.188898E6],"tree_param":{"num_deleted":"0","num_feature":"4","num_nodes":"1","size_leaf_vector":"1"}},{"base_weights":[1.06781E-12],"categories":[],"categories_nodes":[],"categories_segments":[],"categories_sizes":[],"default_left":[0],"id":39,"left_children":[-1],"loss_changes":[0E0],"parents":[2147483647],"right_children":[-1],"split_conditions":[3.20343E-13],"split_indices":[0],"split_type":[0],"sum_hessian":[5.188898E6],"tree_param":{"num_deleted":"0","num_feature":"4","num_nodes":"1","size_leaf_vector":"1"}},{"base_weights":[1.0445379E-12],"categories":[],"categories_nodes":[],"categories_segments":[],"categories_sizes":[],"default_left":[0],"id":40,"left_children":[-1],"loss_changes":[0E0],"parents":[2147483647],"right_children":[-1],"split_conditions":[3.133614E-13],"split_indices":[0],"split_type":[0],"sum_hessian":[5.188898E6],"tree_param":{"num_deleted":"0","num_feature":"4","num_nodes":"1","size_leaf_vector":"1"}},{"base_weights":[1.0211464E-12],"categories":[],"categories_nodes":[],"categories_segments":[],"categories_sizes":[],"default_left":[0],"id":41,"left_children":[-1],"loss_changes":[0E0],"parents":[2147483647],"right_children":[-1],"split_conditions":[3.0634393E-13],"split_indices":[0],"split_type":[0],"sum_hessian":[5.188898E6],"tree_param":{"num_deleted":"0","num_feature":"4","num_nodes":"1","size_leaf_vector":"1"}}]},"name":"gbtree"},"learner_model_param":{"base_score":"2.7410822E-5","boost_from_average":"1","num_class":"0","num_feature":"4","num_target":"1"},"objective":{"name":"reg:squarederror","reg_loss_param":{"scale_pos_weight":"1"}}},"version":[3,0,5]}